digraph Tree {
node [shape=box, fontname="helvetica"] ;
edge [fontname="helvetica"] ;
0 [label="x[3] <= 0.75\ngini = 0.637\nsamples = 33\nvalue = [15, 7, 11]"] ;
1 [label="gini = 0.0\nsamples = 15\nvalue = [15, 0, 0]"] ;
0 -> 1 [labeldistance=2.5, labelangle=45, headlabel="True"] ;
2 [label="x[2] <= 4.85\ngini = 0.475\nsamples = 18\nvalue = [0, 7, 11]"] ;
0 -> 2 [labeldistance=2.5, labelangle=-45, headlabel="False"] ;
3 [label="x[3] <= 1.6\ngini = 0.219\nsamples = 8\nvalue = [0, 7, 1]"] ;
2 -> 3 ;
4 [label="gini = 0.0\nsamples = 7\nvalue = [0, 7, 0]"] ;
3 -> 4 ;
5 [label="gini = 0.0\nsamples = 1\nvalue = [0, 0, 1]"] ;
3 -> 5 ;
6 [label="gini = 0.0\nsamples = 10\nvalue = [0, 0, 10]"] ;
2 -> 6 ;
}