digraph Tree {
node [shape=box, fontname="helvetica"] ;
edge [fontname="helvetica"] ;
0 [label="x[2] <= 2.35\ngini = 0.662\nsamples = 100\nvalue = [28, 38, 34]"] ;
1 [label="gini = 0.0\nsamples = 28\nvalue = [28, 0, 0]"] ;
0 -> 1 [labeldistance=2.5, labelangle=45, headlabel="True"] ;
2 [label="x[3] <= 1.75\ngini = 0.498\nsamples = 72\nvalue = [0, 38, 34]"] ;
0 -> 2 [labeldistance=2.5, labelangle=-45, headlabel="False"] ;
3 [label="x[2] <= 5.35\ngini = 0.139\nsamples = 40\nvalue = [0, 37, 3]"] ;
2 -> 3 ;
4 [label="x[2] <= 4.95\ngini = 0.051\nsamples = 38\nvalue = [0, 37, 1]"] ;
3 -> 4 ;
5 [label="gini = 0.0\nsamples = 35\nvalue = [0, 35, 0]"] ;
4 -> 5 ;
6 [label="x[1] <= 2.45\ngini = 0.444\nsamples = 3\nvalue = [0, 2, 1]"] ;
4 -> 6 ;
7 [label="gini = 0.0\nsamples = 1\nvalue = [0, 0, 1]"] ;
6 -> 7 ;
8 [label="gini = 0.0\nsamples = 2\nvalue = [0, 2, 0]"] ;
6 -> 8 ;
9 [label="gini = 0.0\nsamples = 2\nvalue = [0, 0, 2]"] ;
3 -> 9 ;
10 [label="x[0] <= 5.95\ngini = 0.061\nsamples = 32\nvalue = [0, 1, 31]"] ;
2 -> 10 ;
11 [label="x[0] <= 5.85\ngini = 0.444\nsamples = 3\nvalue = [0, 1, 2]"] ;
10 -> 11 ;
12 [label="gini = 0.0\nsamples = 2\nvalue = [0, 0, 2]"] ;
11 -> 12 ;
13 [label="gini = 0.0\nsamples = 1\nvalue = [0, 1, 0]"] ;
11 -> 13 ;
14 [label="gini = 0.0\nsamples = 29\nvalue = [0, 0, 29]"] ;
10 -> 14 ;
}